{"layers":[4,20,3],"weights":[[20,4,[-0.38057694,-0.021769967,-1.2681402,0.27779853,0.42083523,-1.5866951,0.029875442,0.42735842,0.82491314,-1.1873777,0.5607671,-0.47871846,-0.97258115,0.39857262,0.46550456,0.6525046,1.2224816,-0.54037476,0.7059634,-1.3471562,0.17896108,-0.27190933,-1.6669575,-0.26766515,1.4962062,-2.4499378,0.8107155,0.2532993,-0.14283562,-1.7229908,-0.29564518,-0.8089977,1.6552528,-0.5261912,-1.1155604,0.031125624,1.1766492,-0.7433933,0.63714623,0.3608858,0.6834877,-1.1732882,0.14126544,-0.41227627,1.1097605,1.5946107,-0.40522522,-0.34687054,0.8123579,0.14450853,0.24577938,-0.9067315,-1.0161511,1.7176789,0.060526755,-0.38647184,-0.08178527,0.18437889,1.1427351,1.9944001,1.4378817,-0.38356787,0.10678878,0.843249,-0.36150706,0.9701042,0.2810994,-0.7224939,1.0403507,-0.64227,0.37434968,-0.74685895,-0.54407024,0.06956037,-0.20184977,0.53915435,0.04631621,-1.8923414,0.68320805,-1.0345929]],[3,20,[1.3599176,0.8778745,0.13911651,-1.0771376,0.98476243,-1.304763,0.29644415,-0.116330385,0.07420417,0.4996678,1.51659,-1.1481473,0.23788552,1.3951815,-0.61140734,-0.74304914,-0.105967484,0.8350628,1.8258337,0.02076517,0.33054233,-0.29659772,1.9060038,-0.8536073,-0.5769842,0.4726011,-1.7390543,-0.250697,0.6610289,0.113100335,-0.16163838,1.4665171,-0.6072043,0.17487608,1.5676656,0.98378223,0.6163026,-0.11818372,-0.38594157,-0.85579324,-0.6498824,-1.0604677,0.6942288,0.30568755,0.5097863,-0.8416675,0.7856565,-0.6575144,1.9246317,0.110506736,0.6187812,1.2973533,0.75826126,-0.75126576,-0.5106607,-1.1005895,1.3362297,1.3989928,-0.66322947,-0.075911954]]],"biases":[[0.078840375,-0.71786517,-0.012343811,1.8910222,-0.57707477,0.8428537,-0.04763944,-1.0255063,0.44473517,1.8236393,-0.8291161,0.5602805,-0.03291736,-0.63394845,-0.165905,1.5588757,1.0747427,0.67439365,-0.66026884,-1.1112757],[-1.0957719,-2.235352,1.1058801]]}