{"layers":[4,20,3],"weights":[[20,4,[-0.25504538,-0.749929,0.760465,0.16505209,0.49480695,0.90645486,-0.46199313,1.0228453,0.76162887,-1.5503722,-0.73237205,-0.16513105,-0.21750976,-0.08495425,-1.5614617,-0.4643167,-1.0436444,-0.4934538,0.55615985,-1.4868331,1.1681253,-0.90493673,0.44453403,-1.2899176,2.5071435,-2.1083996,-1.0772424,0.2818728,-0.9217671,-0.39487618,-1.1079512,-1.0358901,-1.0898272,-0.33744138,1.2604749,-0.26424673,-1.0722407,-0.28507775,-1.3729438,-0.26582903,-0.55655944,0.2926103,-0.17111236,0.40058774,2.0488937,-2.810175,-0.74202573,1.1509467,-1.1420149,-1.4391862,-0.5898738,-0.977258,-0.51326805,-0.17064412,-0.26805937,-0.76338923,-0.8695914,1.9905722,-0.8462305,0.3571449,-0.8816328,0.60149103,-0.4332996,0.23070337,-1.0664554,1.4256208,1.2314028,1.3909625,0.11348703,-1.6607876,0.81338173,0.30115053,-1.0268706,-0.56324357,0.6251924,0.58731776,0.09674597,-2.0279627,0.31114689,-1.0877978]],[3,20,[0.44007128,1.1967274,-0.4327629,0.0678987,-0.16498375,-1.1959511,0.38248032,0.89524436,-0.44761702,1.7151419,-0.3765335,0.45679793,0.7998972,-0.32389748,1.1354133,-1.5660532,-0.28373924,1.4484001,-2.160582,0.88662034,-1.036228,-0.4675242,-0.7486712,-0.7171057,-1.7840099,0.45866507,0.33706427,-0.93911976,1.1469821,2.1024811,-0.26243758,-0.6923769,-1.5783619,-0.023403293,0.8304125,2.0486639,1.0042269,1.1069156,-0.101417005,-0.30300543,-0.8393668,0.28703362,0.9000676,-0.5789915,1.17979,-0.8753344,0.74576986,1.3875265,-1.9560826,-1.2766806,-0.18385316,0.32945043,1.9252527,0.8620835,0.1020064,-1.3668951,-0.27750763,-0.40558848,-0.77863836,0.12976116]]],"biases":[[-2.0485194,1.2480823,-0.6257161,-0.9500592,-0.0694184,-1.9214643,0.82274795,0.31312647,-0.97046965,-0.20698994,-0.8762802,1.3265158,0.13143228,1.3934318,0.046787363,-1.4838473,0.74336636,0.6166711,2.1737988,-1.3566908],[-1.2768586,0.11544345,0.66615105]]}